SVM-light Version V6.02
0 # kernel type
5 # kernel parameter -d 
1 # kernel parameter -g 
1 # kernel parameter -s 
1 # kernel parameter -r 
empty# kernel parameter -u 
6 # highest feature index 
450 # number of training documents 
238 # number of support vectors plus 1 
-2.6053372 # threshold b, each following line is a SV (starting with alpha*y)
-1 1:0.30998099 2:0.1500925 3:0.265223 4:0.660043 5:0 6:0.44109589 #
-1 1:0.0047986452 2:0.0248769 3:0.34004599 4:0.66978598 5:0 6:0.68219179 #
-1 1:0.25478449 2:0.77493 3:0.245224 4:0.51024002 5:0 6:0.4191781 #
1 1:-0.1049895 2:-0.065046497 3:0.349967 4:0.85023999 5:0.75 6:0.58630139 #
-1 1:-0.180237 2:-0.2199185 3:0.160024 4:0.44985899 5:0 6:0.4520548 #
1 1:0.39979151 2:0.54015499 3:0.3998585 4:0.84996402 5:0.375 6:0.61917812 #
-1 1:-0.0500095 2:0.28991649 3:0.23014051 4:0.78958499 5:0 6:0.71232879 #
-1 1:0.13498101 2:-0.0249076 3:0.30522299 4:0.61004299 5:0 6:0.44109589 #
-1 1:0.184927 2:0.095076002 3:0.30988351 4:0.66965002 5:0.125 6:0.50684929 #
1 1:0.01481515 2:0.39014351 3:0.15976 4:0.40991101 5:0 6:0.50136989 #
-1 1:-0.069927499 2:-0.074763499 3:0.14975549 4:0.449626 5:0 6:0.55068493 #
-1 1:-0.1149395 2:-0.2299345 3:0.22996899 4:0.559964 5:0 6:0.49589041 #
-1 1:-0.065229498 2:0.01520555 3:0.25513899 4:0.43952301 5:0 6:0.63287669 #
1 1:0.36486849 2:0.56992501 3:0.30482149 4:0.73031801 5:0.375 6:0.50958902 #
1 1:0.2199015 2:0.32516 3:0.25001049 4:0.760463 5:0.5 6:0.59178078 #
1 1:-0.1248955 2:0.27495599 3:0.21486899 4:0.64041901 5:0.75 6:0.4849315 #
-1 1:0.0851385 2:0.27976349 3:0.249869 4:0.62976301 5:0.875 6:0.61095887 #
1 1:-0.1649275 2:-0.2397635 3:0.26475549 4:0.83962601 5:0 6:0.55068493 #
-1 1:-0.195048 2:-0.080162503 3:0.20024601 4:0.69008601 5:0 6:0.69041097 #
-1 1:-0.1502095 2:0.204785 3:0.14986899 4:0.60970497 5:0 6:0.66575342 #
-1 1:-0.2050225 2:0.1947815 3:0.220127 4:0.64987999 5:0 6:0.60547948 #
1 1:0.28001851 2:0.3302055 3:0.2300425 4:0.55994302 5:0.375 6:0.47397259 #
1 1:0.059944 2:-0.059955001 3:0.3047905 4:0.69967598 5:0.5 6:0.52328771 #
1 1:0.3800205 2:0.534935 3:0.334782 4:0.759637 5:0.125 6:0.52876711 #
-1 1:-0.15999749 2:0.1300725 3:0.25008699 4:0.799541 5:0 6:0.55342472 #
-1 1:-0.0049816151 2:-0.094794497 3:0.29004249 4:0.71994299 5:0 6:0.47397259 #
1 1:-0.15995499 2:-0.25976199 3:0.094924502 4:0.44000101 5:0 6:0.52054793 #
1 1:-0.175056 2:-0.15995499 3:0.18479051 4:0.65967602 5:0 6:0.52328771 #
-1 1:0.020025499 2:-0.095155001 3:0.1548195 4:0.50042999 5:0 6:0.43287671 #
-1 1:0.064941503 2:-0.160019 3:0.1848215 4:0.58024299 5:0 6:0.44383559 #
-1 1:0.01492885 2:-0.0248657 3:0.080182001 4:0.48045599 5:0 6:0.4164384 #
1 1:-0.1098715 2:0.179952 3:0.20509949 4:0.55976099 5:0.625 6:0.6931507 #
1 1:0.18486001 2:0.49014649 3:0.1251135 4:0.37950599 5:0.375 6:0.56164378 #
1 1:0.0248382 2:0.3651045 3:0.30014801 4:0.71951401 5:0.25 6:0.4876712 #
-1 1:0.054892998 2:0.299914 3:0.280049 4:0.069802001 5:0.25 6:0.4794521 #
-1 1:0.080224499 2:0.419828 3:0.2400855 4:0.61977601 5:0.375 6:0.6273973 #
-1 1:0.1648355 2:0.63997 3:0.289924 4:0.61010301 5:0 6:0.53698629 #
1 1:-0.054979499 2:-0.140064 3:0.31478199 4:0.86963701 5:0.125 6:0.52876711 #
1 1:0.125211 2:-0.01002185 3:0.29010299 4:0.68019599 5:0 6:0.35068491 #
1 1:-0.0051458501 2:-0.059979498 3:0.27984101 4:0.73980302 5:0 6:0.45753419 #
-0.85809009389921264698841696372256 1:0.025205649 2:0.35497499 3:0.315155 4:0.66979498 5:0.75 6:0.47123289 #
1 1:0.26022401 2:0.63510501 3:0.26488701 4:0.689969 5:0 6:0.40821919 #
1 1:-0.084765501 2:0.02001605 3:0.114911 4:0.43963501 5:0 6:0.67397261 #
1 1:0.2047945 2:0.3648355 3:0.159814 4:0.41 5:0 6:0.53972602 #
-1 1:-0.059923999 2:-0.110185 3:0.14503001 4:0.39018101 5:0.125 6:0.50410962 #
-1 1:-0.0098416004 2:0.0248382 3:0.125007 4:0.409803 5:0 6:0.49041101 #
-1 1:-0.1499795 2:-0.070064001 3:0.224782 4:0.54963702 5:0 6:0.52876711 #
1 1:0.3248685 2:0.52992499 3:0.2998215 4:0.65031803 5:0 6:0.50958902 #
1 1:0.099995002 2:0.4098475 3:0.34485799 4:0.84040499 5:0 6:0.54520547 #
1 1:0.31010199 2:0.44513851 3:0.275116 4:0.69998199 5:0 6:0.6136986 #
-1 1:0.1250025 2:0.0400723 3:0.22008701 4:0.70954102 5:0.5 6:0.55342472 #
1 1:-0.094797 2:-0.18021549 3:0.224824 4:0.63017201 5:0.5 6:0.4219178 #
-1 1:-0.1348955 2:0.094956003 3:0.16986901 4:0.370419 5:0.375 6:0.4849315 #
1 1:0.37523499 2:0.26481551 3:0.30981749 4:0.74972498 5:0 6:0.36712331 #
-1 1:0.060148999 2:0.22991849 3:0.240008 4:0.72995102 5:0 6:0.63835621 #
1 1:-0.070073001 2:-0.0249238 3:0.1548835 4:0.46965 5:0 6:0.50684929 #
-0.36799298666462831874923722352833 1:0.36010599 2:0.27978849 3:0.27504551 4:0.74009502 5:0 6:0.72602743 #
1 1:-0.034856599 2:0.040060401 3:0.18007299 4:0.509839 5:0 6:0.49863011 #
1 1:-0.2300045 2:0.055212501 3:0.1049465 4:0.54006499 5:0 6:0.65753418 #
-1 1:-0.059927501 2:-0.079763502 3:0.1997555 4:0.43962601 5:0.25 6:0.55068493 #
1 1:0.3297815 2:0.35517499 3:0.285133 4:0.66021699 5:0 6:0.60273969 #
-1 1:0.0150675 2:-0.0050181001 3:0.164836 4:0.439832 5:0 6:0.33150679 #
-1 1:-0.08484 2:0.080010504 3:0.1649455 4:0.50975502 5:0 6:0.58904111 #
-1 1:0.129825 2:0.064755499 3:0.18510699 4:0.430053 5:0 6:0.46575341 #
1 1:0.1052345 2:0.36490151 3:0.345162 4:0.710365 5:0.125 6:0.59452051 #
1 1:0.10516 2:0.31001049 3:0.2449455 4:0.82975501 5:0.125 6:0.58904111 #
1 1:0.16523799 2:0.54502499 3:0.27014551 4:0.63952702 5:0 6:0.5178082 #
-1 1:0.32500249 2:0.62006998 3:0.28008699 4:0.64954102 5:0 6:0.55342472 #
-1 1:-0.034918498 2:-0.0200253 3:0.300221 4:0.700149 5:0.125 6:0.4493151 #
-1 1:0.119996 2:0.444897 3:0.149995 4:0.88025999 5:0 6:0.74520552 #
1 1:0.1051855 2:-0.28480849 3:0.1248015 4:0.399964 5:0 6:0.3726027 #
1 1:-0.064927503 2:-0.13476349 3:0.3097555 4:0.82962602 5:0.5 6:0.55068493 #
1 1:0.070234999 2:-0.090184502 3:0.3298175 4:0.139725 5:0 6:0.36712331 #
-1 1:0.0248353 2:-0.32003 3:0.204924 4:0.59010297 5:0.75 6:0.53698629 #
1 1:0.2748675 2:0.50479001 3:0.200149 4:0.55020899 5:0 6:0.66849321 #
-1 1:0.200185 2:0.185203 3:0.17998201 4:0.40025499 5:0 6:0.42465749 #
-1 1:-0.094962999 2:0.050083499 3:0.2100655 4:0.58972698 5:0 6:0.40000001 #
-1 1:-0.170155 2:0.0102321 3:0.1649785 4:0.64988202 5:0 6:0.43013701 #
1 1:0.2047655 2:0.52485502 3:0.24485651 4:0.64003998 5:0 6:0.46027401 #
1 1:0.1647985 2:0.33987701 3:0.175046 4:0.52978599 5:0.375 6:0.68219179 #
1 1:0.01520555 2:0.085224502 3:0.2048225 4:0.84006399 5:0.125 6:0.63013703 #
-1 1:-0.0249076 2:0.114774 3:0.19019049 4:0.390008 5:0.875 6:0.43835619 #
-1 1:0.25520551 2:0.404975 3:0.21515501 4:0.50979501 5:0.625 6:0.47123289 #
-1 1:0.1299745 2:0.1399415 3:0.1899875 4:0.46961099 5:0.5 6:0.44657531 #
1 1:-0.0148416 2:0.184838 3:0.350007 4:0.759803 5:0 6:0.49041101 #
1 1:0.054770999 2:0.1200885 3:0.315072 4:0.74033099 5:0 6:0.34520549 #
1 1:0.02001605 2:0.1148675 3:0.2349965 4:0.79985303 5:0 6:0.67123288 #
1 1:-0.070081502 2:0.15477049 3:0.1250345 4:0.45015299 5:0 6:0.63561642 #
1 1:0.2051345 2:0.20990001 3:0.17019551 4:0.41981801 5:0.375 6:0.41369861 #
-1 1:0.28516799 2:0.49985999 3:0.2397995 4:0.57023197 5:0 6:0.56438363 #
1 1:-0.1249975 2:-0.039927699 3:0.29008701 4:0.75954098 5:0.5 6:0.55342472 #
1 1:-0.110005 2:0.1298475 3:0.149858 4:0.390405 5:0 6:0.54520547 #
-1 1:0.350016 2:0.48486751 3:0.2999965 4:0.699853 5:0 6:0.67123288 #
-1 1:0.0848535 2:0.0749605 3:0.2801865 4:0.74004197 5:0 6:0.6438356 #
1 1:0.055212501 2:0.45000651 3:0.024947699 4:0.47014999 5:0.25 6:0.65479451 #
1 1:0.050083499 2:0.110182 3:0.219891 4:0.51990998 5:0.375 6:0.39726031 #
1 1:-0.024898149 2:0.4951385 3:0.160116 4:0.559982 5:0.125 6:0.6136986 #
-1 1:0.1547945 2:0.46983549 3:0.174814 4:0.55000001 5:0 6:0.53972602 #
-1 1:0.13497099 2:0.39521101 3:0.145154 4:0.49024099 5:0.125 6:0.3534247 #
-1 1:0.25997749 2:0.3647815 3:0.225127 4:0.51988 5:0 6:0.60547948 #
1 1:-0.039775498 2:-0.110172 3:0.2800855 4:0.71977597 5:0 6:0.6273973 #
1 1:0.21520551 2:-0.1347755 3:0.1848225 4:0.69006401 5:0 6:0.63013703 #
1 1:0.0550205 2:-0.180237 3:0.234897 4:0.549743 5:0 6:0.4547945 #
-1 1:-0.01493345 2:-0.1249295 3:0.2349375 4:0.67028803 5:0 6:0.56986302 #
1 1:0.27495599 2:0.474893 3:0.19516949 4:0.54951501 5:0 6:0.4821918 #
-1 1:0.105168 2:0.099859998 3:0.1897995 4:0.44023201 5:0 6:0.56438363 #
-1 1:-0.01018485 2:0.26514351 3:0.17975999 4:0.449911 5:0 6:0.50136989 #
-1 1:0.0251531 2:0.055101998 3:0.23994599 4:0.54038298 5:0 6:0.61643839 #
1 1:0.16476551 2:0.109854 3:0.3098565 4:0.73004001 5:0.125 6:0.46027401 #
1 1:-0.0201592 2:0.0101568 3:0.289929 4:0.660146 5:0.25 6:0.57534248 #
1 1:0.14476299 2:-0.034918498 3:0.305024 4:0.64985901 5:0 6:0.4520548 #
-1 1:0.3799015 2:-0.14984 3:0.28001049 4:0.630463 5:0 6:0.59178078 #
-1 1:0.0049534701 2:0.2649895 3:0.245076 4:0.769921 5:0 6:0.5835616 #
-1 1:0.1501435 2:-0.1149395 3:0.24507301 4:0.72983903 5:0 6:0.49863011 #
1 1:-0.044881549 2:0.48984101 3:0.110057 4:0.479873 5:0 6:0.5780822 #
-0.2772705359674993985663604689762 1:0.1002345 2:-0.02498395 3:0.27991101 4:0.71963501 5:0.25 6:0.67397261 #
1 1:0.064990498 2:0.48491651 3:0.1201405 4:0.409585 5:0 6:0.71232879 #
-1 1:0.085043997 2:0.50503498 3:0.214789 4:0.73967397 5:0 6:0.4027397 #
1 1:0.024977749 2:-0.075218499 3:0.225127 4:0.67988002 5:0 6:0.60547948 #
-1 1:-0.1001745 2:0.38985351 3:0.19489001 4:0.73033202 5:0 6:0.64657527 #
1 1:0.26021251 2:0.085006498 3:0.2049475 4:0.73014998 5:0 6:0.65479451 #
-1 1:0.25486001 2:0.3201465 3:0.21511351 4:0.52950603 5:0 6:0.56164378 #
-1 1:0.1547945 2:0.3648355 3:0.179814 4:0.51999998 5:0.25 6:0.53972602 #
-1 1:0.30476549 2:0.47485399 3:0.26485649 4:0.61004001 5:0.125 6:0.46027401 #
1 1:-0.14004651 2:0.054989502 3:0.24007601 4:0.73992097 5:0 6:0.5835616 #
1 1:-0.124984 2:0.059867501 3:0.2449965 4:0.72985297 5:0 6:0.67123288 #
1 1:0.039774202 2:0.020025499 3:0.28522301 4:0.66013801 5:0 6:0.4356164 #
-1 1:-0.210206 2:0.045219399 3:0.269927 4:0.72960901 5:0 6:0.37808219 #
1 1:0.32003099 2:0.349778 3:0.15514749 4:0.64021498 5:0 6:0.3890411 #
-1 1:-0.075218499 2:0.070175 3:0.150133 4:0.67021698 5:0 6:0.60273969 #
1 1:-0.089978002 2:0.2202345 3:0.1348915 4:0.669554 5:0.25 6:0.67671227 #
-1 1:-0.060155001 2:0.195232 3:0.2599785 4:0.51988202 5:0 6:0.43013701 #
1 1:0.184845 2:0.295232 3:0.27497849 4:0.58988202 5:0 6:0.43013701 #
-1 1:0.049770501 2:0.2652055 3:0.22513901 4:0.59952301 5:0 6:0.63287669 #
1 1:0.080185004 2:0.21020301 3:0.214982 4:0.70025498 5:0 6:0.42465749 #
-1 1:0.01011845 2:0.32984099 3:0.235057 4:0.61987299 5:0 6:0.5780822 #
1 1:0.070017003 2:0.0047916449 3:0.249853 4:0.65972501 5:0 6:0.62191778 #
-1 1:0.26983801 2:-0.0248957 3:0.250148 4:0.53951401 5:0 6:0.4876712 #
1 1:0.264956 2:0.43989301 3:0.25016949 4:0.52951503 5:0 6:0.4821918 #
-1 1:0.25502551 2:0.189845 3:0.2398195 4:0.51042998 5:0 6:0.43287671 #
-1 1:0.064943999 2:0.23004501 3:0.24479049 4:0.59967601 5:0 6:0.52328771 #
-1 1:0.0249894 2:0.2751185 3:0.28477249 4:0.58979899 5:0 6:0.58082187 #
1 1:-0.11003 2:-0.1198015 3:0.15012249 4:0.43041101 5:0.25 6:0.53424662 #
1 1:-0.0550985 2:0.10516 3:0.26501051 4:0.66046298 5:0 6:0.59178078 #
1 1:-0.0200253 2:0.1049415 3:0.27498749 4:0.60961097 5:0 6:0.44657531 #
-1 1:-0.065010503 2:-0.1148815 3:0.2497725 4:0.71979898 5:0 6:0.58082187 #
1 1:0.260185 2:0.420203 3:0.169982 4:0.52025503 5:0 6:0.42465749 #
-1 1:-0.1500995 2:0.1648685 3:0.244844 4:0.64018703 5:0 6:0.5123288 #
1 1:0.28516799 2:0.044860251 3:0.21479949 4:0.59023201 5:0 6:0.56438363 #
-1 1:0.19983549 2:0.12997 3:0.189924 4:0.63010299 5:0 6:0.53698629 #
1 1:-0.059979498 2:0.14476299 3:0.239897 4:0.67974299 5:0 6:0.4547945 #
-1 1:0.154981 2:0.0150924 3:0.245223 4:0.55004299 5:0 6:0.44109589 #
1 1:0.0299359 2:0.249944 3:0.27024251 4:0.62955499 5:0 6:0.52602738 #
-1 1:-0.060152501 2:0.2047945 3:0.25979149 4:0.65010101 5:0 6:0.54246581 #
1 1:0.195232 2:-0.029814901 3:0.23019999 4:0.460491 5:0 6:0.42739731 #
-1 1:0.085184999 2:0.185203 3:0.26998201 4:0.56025499 5:0 6:0.42465749 #
-1 1:0.28497449 2:0.1649415 3:0.2649875 4:0.56961101 5:0 6:0.44657531 #
-1 1:0.17514651 2:-0.0699725 3:0.28001601 4:0.469982 5:0.125 6:0.55890411 #
1 1:-0.040004648 2:0.26021251 3:0.1899465 4:0.68006498 5:0 6:0.65753418 #
1 1:-0.155175 2:-0.0302443 3:0.21510699 4:0.63005298 5:0 6:0.46575341 #
1 1:0.190162 2:0.1898655 3:0.22498 4:0.57045901 5:0 6:0.69863009 #
-0.41996228969478810455484563135542 1:-0.2602295 2:0.21520551 3:0.26013899 4:0.82952303 5:0 6:0.63287669 #
1 1:0.1049415 2:0.124981 3:0.2498215 4:0.510243 5:0 6:0.44383559 #
-1 1:0.2799165 2:0.2498955 3:0.2149035 4:0.64015597 5:0 6:0.709589 #
1 1:0.17498951 2:0.31511849 3:0.21477249 4:0.56979901 5:0 6:0.58082187 #
-1 1:-0.039787252 2:0.1500065 3:0.25994751 4:0.65015 5:0 6:0.65479451 #
1 1:0.30487701 2:0.215022 3:0.14493699 4:0.60960501 5:0 6:0.67945212 #
-1 1:0.3052125 2:0.13000651 3:0.2399475 4:0.61014998 5:0 6:0.65479451 #
1 1:-0.090145998 2:0.0550205 3:0.254841 4:0.509803 5:0 6:0.45753419 #
-1 1:0.090205498 2:-0.0050252001 3:0.225155 4:0.62979501 5:0 6:0.47123289 #
1 1:0.1947815 2:0.080174997 3:0.130133 4:0.60021698 5:0 6:0.60273969 #
-1 1:0.185203 2:0.41478449 3:0.249824 4:0.55017197 5:0.25 6:0.4219178 #
-1 1:-0.084918499 2:0.00497468 3:0.29022101 4:0.66014898 5:0 6:0.4493151 #
1 1:0.1500705 2:0.33016801 3:0.2200745 4:0.530159 5:0 6:0.56712329 #
1 1:-0.1147755 2:0.054827999 3:0.1450855 4:0.52977598 5:0.125 6:0.6273973 #
-1 1:0.105016 2:0.32486749 3:0.2299965 4:0.70985299 5:0 6:0.67123288 #
1 1:0.1648685 2:0.12992699 3:0.1998215 4:0.52031797 5:0 6:0.50958902 #
-1 1:0.094755501 2:0.1047655 3:0.219945 4:0.69045597 5:0 6:0.46301371 #
1 1:-0.0047653401 2:0.2199015 3:0.195162 4:0.580365 5:0 6:0.59452051 #
-1 1:-0.070171997 2:0.070017003 3:0.259929 4:0.68966299 5:0 6:0.62465751 #
-1 1:-0.085123003 2:0.0698255 3:0.2051685 4:0.699781 5:0.125 6:0.64931512 #
-1 1:0.29485351 2:0.1849605 3:0.26518649 4:0.62004203 5:0 6:0.6438356 #
1 1:0.204853 2:0.4049955 3:0.20001701 4:0.510131 5:0 6:0.66027403 #
1 1:-0.094794497 2:0.114975 3:0.175155 4:0.55979502 5:0 6:0.47123289 #
1 1:0.059914 2:0.1750185 3:0.130007 4:0.55027902 5:0 6:0.47671229 #
-1 1:0.064838 2:0.3951045 3:0.30514801 4:0.63951403 5:0 6:0.4876712 #
-1 1:0.02985415 2:-0.054979499 3:0.224841 4:0.54980302 5:0.375 6:0.45753419 #
-1 1:0.19503701 2:0.2450835 3:0.26506549 4:0.639727 5:0 6:0.40000001 #
1 1:0.235185 2:0.065203004 3:0.104982 4:0.51025498 5:0 6:0.42465749 #
1 1:0.1298475 2:0.1547945 3:0.18479151 4:0.45010099 5:0 6:0.54246581 #
-1 1:0.27976349 2:0.32997751 3:0.19020601 4:0.56972897 5:0.5 6:0.60821921 #
-1 1:0.2348685 2:0.36992699 3:0.2348215 4:0.56031799 5:0.375 6:0.50958902 #
-1 1:0.294911 2:0.474794 3:0.2897965 4:0.66959202 5:0 6:0.38082191 #
1 1:-0.18021549 2:-0.02507115 3:0.185224 4:0.48023999 5:0 6:0.4191781 #
1 1:0.085025497 2:-0.170155 3:0.1398195 4:0.44042999 5:0 6:0.43287671 #
-1 1:-0.03998965 2:-0.14004651 3:0.254967 4:0.77024001 5:0 6:0.58630139 #
1 1:0.214771 2:0.2650885 3:0.190072 4:0.43033099 5:0 6:0.34520549 #
-1 1:-2.8984599e-05 2:0.125211 3:0.28015399 4:0.68024099 5:0 6:0.3534247 #
1 1:0.065116502 2:0.1099905 3:0.184927 4:0.45010799 5:0 6:0.71506852 #
-1 1:0.31511849 2:0.059841 3:0.295057 4:0.62987298 5:0 6:0.5780822 #
1 1:0.1500065 2:0.27987701 3:0.1700215 4:0.45038801 5:0 6:0.65205479 #
-1 1:0.064852998 2:0.1199955 3:0.265017 4:0.68013102 5:0 6:0.66027403 #
-1 1:0.32486749 2:0.3047905 3:0.235149 4:0.68020898 5:0 6:0.66849321 #
1 1:0.2049005 2:0.3298685 3:0.12984399 4:0.46018699 5:0 6:0.5123288 #
-1 1:0.17013849 2:0.3347635 3:0.299869 4:0.64976299 5:0 6:0.61095887 #
1 1:0.080010504 2:0.0049534701 3:0.124967 4:0.48023999 5:0 6:0.58630139 #
-1 1:-0.049840599 2:-0.0047653401 3:0.33989999 4:0.68045902 5:0 6:0.5972603 #
-1 1:0.064755499 2:0.30476549 3:0.249945 4:0.70045602 5:0.25 6:0.46301371 #
-1 1:0.32978451 2:0.444929 3:0.275224 4:0.67023998 5:0.125 6:0.4191781 #
1 1:0.01015975 2:0.095010497 3:0.2149455 4:0.40975499 5:0 6:0.58904111 #
1 1:0.0698255 2:-0.03014675 3:0.11489 4:0.470332 5:0 6:0.64657527 #
-1 1:0.1749185 2:-0.065229498 3:0.2900345 4:0.64015299 5:0.25 6:0.63561642 #
-1 1:0.25490001 2:0.105224 3:0.27476451 4:0.620323 5:0.125 6:0.41095889 #
1 1:0.199763 2:0.1100815 3:0.15502401 4:0.39985901 5:0 6:0.4520548 #
1 1:0.1847945 2:0.33983549 3:0.13481399 4:0.41 5:0 6:0.53972602 #
-1 1:0.0099953497 2:0.3052125 3:0.2399465 4:0.74006498 5:0 6:0.65753418 #
1 1:-0.26010701 2:0.059914 3:0.16004901 4:0.47980201 5:0 6:0.4794521 #
-1 1:0.1300655 2:0.1601585 3:0.28494751 4:0.68028599 5:0 6:0.49315071 #
-1 1:0.0749605 2:0.185149 3:0.295059 4:0.679914 5:0 6:0.64109588 #
1 1:0.22002199 2:0.1552345 3:0.1098915 4:0.43955401 5:0 6:0.67671227 #
1 1:-0.045139749 2:0.2551465 3:0.1201135 4:0.469506 5:0 6:0.56164378 #
-1 1:0.13997 2:0.4251985 3:0.27512249 4:0.71041101 5:0 6:0.53424662 #
-1 1:0.2751185 2:0.38984099 3:0.320057 4:0.669873 5:0 6:0.5780822 #
1 1:-0.069851004 2:0.039918501 3:0.18000799 4:0.39995101 5:0 6:0.63835621 #
-1 1:-0.044881549 2:-0.0201592 3:0.290057 4:0.70987302 5:0.25 6:0.5780822 #
1 1:0.204785 2:0.28485301 3:0.13015801 4:0.41034499 5:0 6:0.6630137 #
-1 1:0.28021249 2:0.4000065 3:0.2399475 4:0.73014998 5:0.125 6:0.65479451 #
1 1:0.040060401 2:0.075065501 3:0.119969 4:0.42996401 5:0 6:0.49589041 #
-1 1:0.1550675 2:0.48998201 3:0.31983599 4:0.68983197 5:0 6:0.33150679 #
1 1:-0.1349075 2:0.039774202 3:0.1251905 4:0.390008 5:0 6:0.43835619 #
1 1:-0.02507115 2:0.2051345 3:0.13518199 4:0.39045599 5:0 6:0.4164384 #
1 1:0.13475551 2:0.31976551 3:0.13494501 4:0.40045601 5:0 6:0.46301371 #
-0.076684093773874195676398812793195 1:0.29509249 2:0.169774 3:0.4051905 4:0.59000802 5:0.125 6:0.43835619 #
1 1:0.054827999 2:0.26001701 3:0.109929 4:0.40966299 5:0 6:0.62465751 #
1 1:0.045219399 2:0.3651855 3:0.120096 4:0.37973401 5:0 6:0.37534249 #
-1 1:-0.044923801 2:0.27981499 3:0.30502999 4:0.73018098 5:0 6:0.50410962 #
-1 1:-0.0099334503 2:0.1500705 3:0.30493751 4:0.74028802 5:0 6:0.56986302 #
