SVM-light Version V6.02
0 # kernel type
3 # kernel parameter -d 
1 # kernel parameter -g 
1 # kernel parameter -s 
1 # kernel parameter -r 
empty# kernel parameter -u 
6 # highest feature index 
450 # number of training documents 
208 # number of support vectors plus 1 
0.67261151 # threshold b, each following line is a SV (starting with alpha*y)
500 1:-0.2425403 2:-0.01833526 3:-1.157679 4:-0.4077532 5:-0.5266434 6:-0.60257763 #
500 1:-0.81630969 2:0.37538651 3:-0.5948993 4:0.2203179 5:-0.5266434 6:1.263863 #
-500 1:-0.27137271 2:0.55886602 3:0.25108451 4:-2.7329171 5:0.61823362 6:-0.5742982 #
500 1:1.709161 2:1.6691329 3:1.375991 4:1.0425071 5:1.190672 6:0.86795157 #
500 1:0.0160241 2:-0.2495822 3:-0.03272533 4:-0.60149872 5:-0.5266434 6:-0.94193047 #
-500 1:-0.21473861 2:0.58128709 3:-0.031565771 4:0.31899571 5:0.61823362 6:-0.74397469 #
500 1:-0.385075 2:-0.92065161 3:0.53408682 4:0.80075592 5:-0.5266434 6:-0.99848932 #
500 1:0.4749454 2:1.43802 3:-1.203625 4:-1.234172 5:1.190672 6:0.274084 #
500 1:-0.35819039 2:-0.7346313 3:0.29966381 4:0.1238855 5:-0.5266434 6:-1.026769 #
-500 1:0.18846449 2:0.99927849 3:-1.015462 4:-0.69829398 5:0.045795079 6:-1.875151 #
500 1:0.27517131 2:0.69868398 3:-0.3120237 4:-0.50511962 5:-0.5266434 6:0.33064279 #
500 1:1.595628 2:1.645009 3:0.7649796 4:0.6053893 5:0.045795079 6:-0.065268867 #
-500 1:1.0199161 2:0.69780362 3:-0.59246278 4:-0.31362921 5:1.763111 6:0.75483388 #
500 1:-0.67181432 2:0.0270453 3:0.907929 4:0.60619259 5:-0.5266434 6:-0.4611806 #
500 1:-0.90230078 2:-1.474481 3:0.57719702 4:1.13771 5:0.045795079 6:-0.065268867 #
-500 1:0.017324749 2:-0.36567831 3:-0.5962795 4:-0.94030172 5:-0.5266434 6:0.3023634 #
500 1:0.59136891 2:0.1428687 3:-0.78034389 4:-1.039091 5:1.190672 6:-1.253004 #
-500 1:-0.068595402 2:-0.85040241 3:-0.26432219 4:-0.02295284 5:-0.5266434 6:-0.65913641 #
-500 1:-0.93202043 2:0.075080886 3:0.062640034 4:-0.5548529 5:-0.5266434 6:-1.083328 #
500 1:-0.1832733 2:-1.243964 3:0.71836722 4:-2.3945401 5:-0.5266434 6:-1.733754 #
500 1:-0.01238051 2:1.066921 3:0.85958439 4:0.99624842 5:-0.5266434 6:0.1044076 #
-500 1:-1.1027319 2:-0.52682668 3:-1.064539 4:-0.60215199 5:-0.5266434 6:1.857731 #
-500 1:1.481272 2:0.46585649 3:0.204106 4:0.51081997 5:-0.5266434 6:1.970848 #
500 1:0.41826531 2:0.62913322 3:-0.36180481 4:-0.31329039 5:-0.5266434 6:0.47203991 #
500 1:-0.50151438 2:0.97585922 3:-0.87832409 4:-1.087034 5:-0.5266434 6:-0.3480629 #
500 1:-0.98897308 2:-0.94236332 3:-0.92411017 4:-0.79793972 5:-0.5266434 6:-0.29150411 #
-500 1:-0.932006 2:0.1192737 3:0.06088426 4:0.075313628 5:-0.5266434 6:0.07612817 #
-500 1:-0.64310241 2:-0.71238953 3:-1.2046241 4:-1.087556 5:-0.5266434 6:-0.4611806 #
500 1:-0.4716489 2:-0.29632151 3:-0.17191911 4:0.80000579 5:-0.5266434 6:1.40526 #
500 1:-1.621452 2:-0.9430443 3:-0.63923937 4:-0.7466917 5:-0.5266434 6:-1.196445 #
-500 1:0.87889493 2:1.044403 3:-0.35821351 4:-0.60366672 5:2.3355491 6:-0.65913641 #
500 1:-0.95942581 2:-1.449985 3:0.53000259 4:0.94408578 5:1.763111 6:0.1609664 #
500 1:-1.477493 2:-2.3059549 3:-0.97145492 4:-0.45844951 5:-0.5266434 6:-0.80053347 #
-500 1:-0.44215009 2:-0.57252622 3:-0.1254476 4:-0.4556427 5:-0.5266434 6:0.83967221 #
500 1:-1.245671 2:-0.57379252 3:-1.0161051 4:-0.50697303 5:0.045795079 6:0.95278978 #
-500 1:-0.21367051 2:-1.566702 3:-0.6430186 4:-0.26274899 5:-0.5266434 6:-0.94193047 #
500 1:-0.70025527 2:-1.011 3:-0.83079171 4:-0.9895075 5:-0.5266434 6:0.98106921 #
500 1:0.90764701 2:-0.43432331 3:-0.45405301 4:0.4626933 5:-0.5266434 6:1.235584 #
500 1:1.050951 2:-0.61985821 3:-0.36155131 4:-0.2144094 5:-0.5266434 6:0.3023634 #
500 1:-1.1042399 2:-0.5729028 3:0.01440339 4:-0.60362798 5:-0.5266434 6:-0.80053347 #
-500 1:0.16098151 2:0.72195321 3:0.062672891 4:0.076058879 5:-0.5266434 6:-1.139886 #
500 1:-0.72956258 2:1.461091 3:-0.87498158 4:-0.3607977 5:0.045795079 6:0.81139278 #
500 1:0.56052381 2:-0.3184399 3:-0.922791 4:-1.1356781 5:-0.5266434 6:-0.85709232 #
500 1:-0.73055607 2:0.120845 3:-1.10909 4:-1.181182 5:-0.5266434 6:-1.224725 #
-500 1:-1.131901 2:-0.59571898 3:-0.40599939 4:-0.2168532 5:-0.5266434 6:-1.394401 #
-500 1:0.2171706 2:1.1378649 3:0.20482901 4:0.36717069 5:-0.5266434 6:-0.0087100584 #
-500 1:-0.9881376 2:-1.172696 3:-0.97225767 4:-0.89484149 5:-0.5266434 6:0.1609664 #
-500 1:0.01645191 2:0.6741879 3:-0.2188648 4:0.36447039 5:-0.5266434 6:1.40526 #
-500 1:-0.50086141 2:-0.9420948 3:-1.625492 4:-0.74564642 5:-0.5266434 6:-1.224725 #
500 1:-0.8149938 2:-1.336336 3:0.2514272 4:0.41249061 5:-0.5266434 6:0.95278978 #
-500 1:-0.52919137 2:0.58335292 3:-0.125443 4:0.51067477 5:-0.5266434 6:1.263863 #
-500 1:1.022494 2:1.021441 3:-0.12543359 4:0.4626933 5:0.045795079 6:1.235584 #
500 1:-1.218421 2:-1.380838 3:-0.96881193 4:-0.98782831 5:0.61823362 6:-0.0087100584 #
500 1:-0.41468549 2:0.3279309 3:0.15900999 4:-0.02411427 5:-0.5266434 6:-0.093548283 #
500 1:0.7329613 2:-0.50313711 3:0.3892267 4:1.234917 5:-0.5266434 6:1.8860101 #
500 1:-0.2126656 2:-0.31886041 3:-0.64202797 4:-0.89250898 5:-0.5266434 6:1.857731 #
500 1:-0.90298408 2:-0.3411845 3:0.1098861 4:0.1254583 5:-0.5266434 6:0.58515751 #
500 1:0.907713 2:2.1079421 3:0.1087266 4:0.26824611 5:-0.5266434 6:-1.309563 #
500 1:-0.98769832 2:-0.64269632 3:-0.68821311 4:-1.135233 5:-0.5266434 6:1.065907 #
500 1:0.5035854 2:0.97424632 3:-1.018865 4:-1.231293 5:-0.5266434 6:0.07612817 #
-500 1:-0.5570218 2:-0.52715951 3:0.015971379 4:-0.02219791 5:2.9079881 6:1.065907 #
500 1:0.01770662 2:0.85920399 3:0.86243868 4:0.3669481 5:0.045795079 6:0.61343688 #
500 1:0.2446937 2:-0.98855352 3:0.48557791 4:0.074142523 5:-0.5266434 6:-0.85709232 #
-500 1:0.76211238 2:0.88242918 3:-0.1735622 4:-0.35917169 5:1.190672 6:-0.26322469 #
-500 1:-1.621575 2:-1.843526 3:-0.87584537 4:-0.89371389 5:-0.5266434 6:-0.85709232 #
-500 1:0.15977269 2:-0.18044271 3:-0.59451431 4:-0.79812843 5:1.763111 6:-0.91365111 #
500 1:-0.2720733 2:-0.27219281 3:0.57991987 4:0.51196212 5:-0.5266434 6:-1.959989 #
500 1:-0.93101257 2:-0.15816019 3:-0.1259077 4:0.2187596 5:-0.5266434 6:-0.8288129 #
-500 1:0.9350782 2:2.3852999 3:-0.31485921 4:-0.45846891 5:-0.5266434 6:0.47203991 #
500 1:0.64920032 2:-1.45004 3:-0.64300919 4:0.2687059 5:-0.5266434 6:0.98106921 #
500 1:-0.7023499 2:-0.78023922 3:0.34384909 4:0.1239242 5:0.61823362 6:0.41548109 #
500 1:-0.61613768 2:-1.104372 3:0.24913161 4:0.50940692 5:-0.5266434 6:-0.80053347 #
-500 1:-1.563681 2:-0.77989119 3:-0.82932699 4:0.07425382 5:-0.5266434 6:-1.083328 #
500 1:-1.706223 2:-1.842819 3:-0.2198506 4:0.55659479 5:-0.5266434 6:1.4618191 #
-500 1:-1.361208 2:-0.38834199 3:-0.78340948 4:-1.278147 5:1.190672 6:-0.51773942 #
500 1:-1.189476 2:-1.127789 3:0.90755337 4:1.043843 5:2.9079881 6:0.52859873 #
500 1:0.35955539 2:-0.3194913 3:0.5309509 4:0.462161 5:0.045795079 6:-0.77225411 #
500 1:1.194131 2:1.2300169 3:0.2047679 4:0.31670189 5:-0.5266434 6:0.81139278 #
-500 1:0.30229831 2:0.858899 3:-0.69003463 4:-0.55428177 5:0.61823362 6:0.047848761 #
500 1:0.47485921 2:0.53722823 3:0.20347691 4:-0.21610311 5:-0.5266434 6:-1.083328 #
500 1:-0.701581 2:-0.34219429 3:0.2035614 4:-0.1206289 5:-0.5266434 6:-0.91365111 #
500 1:1.50862 2:1.806715 3:0.48367661 4:0.46350631 5:1.190672 6:-0.26322469 #
-428.59714287016657863205182366073 1:-0.097691961 2:0.46574101 3:-0.03227935 4:-0.0231077 5:3.4804261 6:0.78311342 #
-500 1:0.87647742 2:2.7541399 3:-0.075891837 4:-0.60151321 5:-0.5266434 6:-1.196445 #
500 1:0.017278809 2:0.60552669 3:-0.078506708 4:0.94471002 5:0.045795079 6:0.55687809 #
500 1:0.50539142 2:0.050279759 3:-0.26596531 4:-0.3100965 5:-0.5266434 6:1.688054 #
500 1:-2.0802181 2:-0.5502876 3:-0.87561071 4:-0.7488113 5:-0.5266434 6:-0.5742982 #
500 1:1.307138 2:0.81425321 3:0.2988188 4:0.1242678 5:-0.5266434 6:0.69827509 #
500 1:-0.6139527 2:0.1890903 3:-0.54593033 4:-0.2621586 5:-0.5266434 6:0.61343688 #
-500 1:-0.4715946 2:-1.266935 3:-0.92471111 4:-0.64898658 5:-0.5266434 6:-1.055048 #
500 1:-0.12613679 2:0.144269 3:-0.3598378 4:0.318023 5:-0.5266434 6:-1.139886 #
-500 1:-0.12590989 2:1.113045 3:-0.1241379 4:-0.071437612 5:1.190672 6:0.95278978 #
500 1:-0.3007254 2:1.02222 3:-0.1236919 4:0.55980319 5:-0.5266434 6:0.69827509 #
-500 1:-1.449146 2:0.1192298 3:-0.971192 4:-0.120174 5:-0.5266434 6:1.348702 #
500 1:-0.1845251 2:-0.8050341 3:-0.032429568 4:0.1218869 5:-0.5266434 6:0.896231 #
-500 1:-0.93069392 2:-1.336396 3:-1.016626 4:-1.182513 5:0.045795079 6:-0.31978351 #
500 1:-0.44395831 2:0.86014211 3:0.43979651 4:0.4112227 5:0.61823362 6:-0.48945999 #
-500 1:-0.95968419 2:-1.404851 3:-0.45349431 4:-0.79789132 5:-0.5266434 6:0.2175252 #
-500 1:-1.505476 2:-1.45065 3:0.1118813 4:0.80092531 5:-0.5266434 6:-0.9702099 #
500 1:-1.130947 2:-1.66004 3:-0.26743001 4:-0.021128429 5:1.763111 6:-1.168166 #
-500 1:0.9062975 2:0.85864937 3:-0.26458511 4:-0.5548625 5:-0.5266434 6:0.72655451 #
-500 1:-1.01852 2:-0.50286669 3:-0.96871328 4:0.1726606 5:-0.5266434 6:0.69827509 #
500 1:-1.218277 2:-0.2270918 3:-0.9712953 4:-1.181429 5:-0.5266434 6:0.1044076 #
-500 1:1.594945 2:-1.51966 3:0.250723 4:-0.0197202 5:-0.5266434 6:0.58515751 #
-500 1:-0.98973399 2:-1.336301 3:-0.079741381 4:1.042681 5:-0.5266434 6:0.047848761 #
500 1:-0.242368 2:-1.104259 3:0.48338559 4:0.31522101 5:1.763111 6:-0.1218277 #
-500 1:-1.763903 2:0.072998919 3:-0.31153071 4:0.074244149 5:-0.5266434 6:0.72655451 #
-500 1:-0.6723417 2:-1.404537 3:-0.1724731 4:0.1730042 5:-0.5266434 6:0.35892221 #
-500 1:-0.443975 2:-2.3061891 3:-0.45427361 4:-0.21503361 5:2.9079881 6:0.01956935 #
500 1:1.0213799 2:0.69885731 3:-0.2184329 4:-0.36098641 5:1.190672 6:-0.63085699 #
500 1:-1.1622289 2:-0.990013 3:-0.97047842 4:-1.519932 5:-0.5266434 6:-0.74397469 #
-500 1:1.163487 2:1.367347 3:0.1084402 4:-0.1185529 5:0.045795079 6:-0.77225411 #
-500 1:0.90526962 2:2.869422 3:-0.2184 4:0.073789246 5:-0.5266434 6:1.518378 #
-500 1:-0.96116 2:-0.75690663 3:0.017201349 4:-0.9437328 5:-0.5266434 6:1.009349 #
500 1:0.67616647 2:0.67553967 3:-0.030950779 4:0.6093865 5:1.763111 6:0.58515751 #
-500 1:0.41916689 2:-1.150555 3:0.25077471 4:-0.79633307 5:0.045795079 6:0.24580459 #
-500 1:1.1660531 2:-0.226357 3:-0.12543359 4:-0.1180205 5:-0.5266434 6:1.235584 #
-500 1:0.56294709 2:0.02873214 3:-0.68845719 4:-1.133762 5:-0.5266434 6:-1.139886 #
-500 1:-0.81506127 2:-0.1339276 3:0.062348969 4:0.07555075 5:-0.5266434 6:1.235584 #
-500 1:0.87714058 2:-0.34088871 3:0.20146769 4:-0.068790518 5:0.045795079 6:-1.281283 #
500 1:-0.27064049 2:-1.660139 3:-0.17285331 4:-0.4103471 5:-0.5266434 6:-0.8288129 #
-500 1:-0.098234624 2:1.506827 3:-0.3616499 4:0.50878268 5:-0.5266434 6:-1.366122 #
-4.0107222246938931675686035305262 1:1.279695 2:2.0384581 3:0.2514413 4:0.072603628 5:-0.5266434 6:0.18924581 #
-500 1:-0.93071401 2:-1.195804 3:-0.5028013 4:-0.94323432 5:0.61823362 6:0.1609664 #
-500 1:-0.2136562 2:0.2359682 3:-0.079962023 4:-0.16870721 5:-0.5266434 6:-0.1218277 #
-500 1:-0.52848452 2:0.69717282 3:-0.1713511 4:-0.070968203 5:-0.5266434 6:0.44376051 #
-500 1:-0.64507347 2:0.398175 3:-0.69054163 4:-0.8934623 5:-0.5266434 6:-0.3480629 #
-500 1:1.020795 2:0.32770681 3:-0.36057481 4:0.027186969 5:-0.5266434 6:1.801172 #
-445.54410573137283790856599807739 1:-0.5867548 2:-0.2485193 3:0.2520704 4:0.22116961 5:-0.5266434 6:-1.875151 #
-500 1:-0.097424939 2:0.02873214 3:0.15656421 4:-0.35947651 5:-0.5266434 6:-1.139886 #
-500 1:-1.161827 2:0.97451901 3:-0.54848409 4:0.46357411 5:-0.5266434 6:1.150746 #
-500 1:-0.98954159 2:-0.5035969 3:0.06217527 4:0.2667653 5:-0.5266434 6:0.92451042 #
500 1:-1.1032749 2:0.1906293 3:-1.111818 4:0.16945221 5:0.61823362 6:1.4618191 #
-500 1:-0.61433458 2:-1.035791 3:-0.50238818 4:-0.35958779 5:-0.5266434 6:0.3023634 #
-500 1:0.1312217 2:-0.64198548 3:-0.31190631 4:0.36296061 5:1.763111 6:0.18924581 #
-500 1:-2.0809209 2:0.1673879 3:0.064146981 4:0.9435873 5:-0.5266434 6:1.009349 #
-500 1:0.56094009 2:-0.22652569 3:-0.59511048 4:-0.02146234 5:-0.5266434 6:0.01956935 #
-500 1:-0.95990241 2:-1.3581001 3:-0.0331854 4:0.41260189 5:-0.5266434 6:0.47203991 #
500 1:0.5894165 2:0.858899 3:-0.87781709 4:-1.086603 5:-0.5266434 6:0.047848761 #
500 1:0.27480379 2:0.4662655 3:-0.78197759 4:-0.89115399 5:-0.5266434 6:1.207304 #
500 1:-1.5918241 2:-1.566406 3:-0.64330959 4:0.1216498 5:-0.5266434 6:-0.1218277 #
500 1:0.187227 2:0.6506092 3:-1.111315 4:-1.132789 5:-0.5266434 6:-0.74397469 #
-500 1:0.30336919 2:-0.75742948 3:-0.075901233 4:-0.40889531 5:-0.5266434 6:-0.9702099 #
500 1:-0.98926032 2:0.1896472 3:0.109196 4:1.0407701 5:-0.5266434 6:1.490099 #
500 1:-1.30437 2:-1.011703 3:0.3453325 4:0.60492468 5:1.763111 6:0.18924581 #
500 1:-0.44315699 2:-1.174799 3:-0.26458511 4:0.21942259 5:-0.5266434 6:0.72655451 #
-500 1:-1.447825 2:-1.150978 3:-0.26782441 4:-0.41086 5:-0.5266434 6:-0.065268867 #
-500 1:-1.0753959 2:-0.50448191 3:-0.451978 4:0.3157292 5:0.045795079 6:1.1790251 #
-500 1:0.30229831 2:1.344154 3:-0.7369802 4:-0.40910339 5:-0.5266434 6:0.047848761 #
-500 1:0.96292013 2:-0.94223338 3:-0.02965978 4:-0.45984811 5:-0.5266434 6:-0.48945999 #
500 1:0.36014679 2:-0.2267244 3:-0.50218171 4:-0.5527429 5:-0.5266434 6:-0.26322469 #
500 1:-1.390787 2:-0.57304609 3:-0.1242271 4:0.509978 5:-0.5266434 6:0.5003193 #
-500 1:1.135283 2:1.021506 3:-0.079487868 4:-0.16809259 5:-0.5266434 6:-0.80053347 #
-500 1:-0.90230078 2:-0.96691787 3:0.1088204 4:0.073581159 5:0.045795079 6:-0.8288129 #
-500 1:-0.84540337 2:-0.75723583 3:-0.076286182 4:0.70613831 5:-0.5266434 6:-1.224725 #
500 1:1.164127 2:0.16653989 3:-1.017499 4:-0.1206579 5:-0.5266434 6:1.490099 #
500 1:0.99180132 2:1.505695 3:-0.49910671 4:-0.40809199 5:-0.5266434 6:1.376981 #
-500 1:-0.30078799 2:0.39846161 3:-0.2644724 4:-0.1694476 5:-0.5266434 6:1.009349 #
500 1:0.99230951 2:1.367527 3:-0.54585987 4:-0.41145039 5:-0.5266434 6:-0.54601878 #
500 1:0.64670533 2:0.39792091 3:-0.59372091 4:-0.98821539 5:-0.5266434 6:-1.959989 #
-500 1:0.87691092 2:0.65236992 3:-0.35860309 4:-0.50827962 5:-0.5266434 6:0.274084 #
-500 1:-1.505353 2:-0.226052 3:-0.030232521 4:0.79849601 5:-0.5266434 6:0.18924581 #
500 1:0.5897525 2:1.044497 3:-0.50034612 4:-0.60204071 5:-0.5266434 6:1.292143 #
-500 1:1.2789201 2:0.5814026 3:-0.1704873 4:0.22101469 5:-0.5266434 6:1.376981 #
500 1:-1.4776599 2:-0.96695179 3:-0.35866421 4:-0.021704299 5:-0.5266434 6:-0.7156952 #
500 1:-1.533662 2:-1.935239 3:0.1074919 4:0.99247861 5:-0.5266434 6:0.1609664 #
500 1:-0.70118272 2:0.2128239 3:-0.83110619 4:-0.84621638 5:-0.5266434 6:-1.366122 #
-500 1:-1.332186 2:0.0039379322 3:-0.077929281 4:1.090121 5:-0.5266434 6:-0.4611806 #
500 1:-0.4992725 2:-0.43331581 3:-0.4552266 4:0.99459821 5:0.045795079 6:0.98106921 #
500 1:0.907489 2:1.114778 3:-0.78234851 4:-0.55304778 5:-0.5266434 6:-1.139886 #
205.83824976225787395378574728966 1:0.53191823 2:-0.45665199 3:-1.156496 4:-0.1660891 5:-0.5266434 6:0.69827509 #
500 1:-0.78674769 2:-0.64204049 3:-0.68760282 4:-0.60345381 5:-0.5266434 6:-0.37634239 #
500 1:0.36226869 2:1.69164 3:0.15809929 4:0.024143061 5:-0.5266434 6:-0.17838649 #
500 1:-1.2175111 2:0.00446478 3:-0.45262581 4:-0.3618671 5:2.3355491 6:1.631496 #
-500 1:-0.2141787 2:-0.27262259 3:0.1099471 4:0.22063731 5:-0.5266434 6:1.292143 #
-500 1:-0.35722911 2:-0.2033675 3:0.15505721 4:0.89867878 5:-0.5266434 6:-0.94193047 #
500 1:-0.47148809 2:-1.266048 3:-0.079976112 4:-0.36228821 5:-0.5266434 6:-1.366122 #
-500 1:-1.793668 2:-0.61819839 3:0.15604781 4:0.46007529 5:-0.5266434 6:-1.620636 #
500 1:-1.130933 2:-0.29582471 3:-0.73377848 4:-0.36170259 5:-0.5266434 6:-0.65913641 #
-500 1:-0.87376118 2:0.51266283 3:-0.2175127 4:0.75031608 5:-0.5266434 6:1.829451 #
-500 1:1.193436 2:-0.1335301 3:0.1118813 4:0.1234258 5:-0.5266434 6:-0.9702099 #
-287.32941209454838826786726713181 1:-0.09932854 2:-0.48075059 3:0.25237551 4:0.51056349 5:-0.5266434 6:1.122466 #
-500 1:-0.21380261 2:-0.7358098 3:0.20400269 4:0.75306481 5:-0.5266434 6:1.0376281 #
233.74583932742757497180718928576 1:0.4745692 2:0.74336213 3:-1.112545 4:-1.086603 5:-0.5266434 6:0.047848761 #
500 1:-1.303784 2:0.4435232 3:-0.36089879 4:0.0284597 5:2.9079881 6:-0.51773942 #
-500 1:1.049839 2:-0.064905852 3:0.1096702 4:-0.31420019 5:-0.5266434 6:-0.91365111 #
-500 1:-0.72961688 2:-0.29675359 3:-0.59260827 4:-1.18335 5:3.4804261 6:-0.99848932 #
-500 1:1.106568 2:0.027611431 3:0.1115386 4:-0.07015036 5:-0.5266434 6:1.122466 #
-500 1:0.27559051 2:-1.358368 3:-0.077309601 4:0.46118829 5:-0.5266434 6:-0.37634239 #
-500 1:-0.81622362 2:-1.4744 3:0.01558642 4:0.65670019 5:-0.5266434 6:0.52859873 #
500 1:-1.131212 2:-1.658736 3:-0.079037197 4:0.1697571 5:-0.5266434 6:0.38720161 #
-500 1:1.050951 2:1.482911 3:-0.1268232 4:-0.31119499 5:-0.5266434 6:0.3023634 #
-500 1:-0.127535 2:0.0045988029 3:0.06116594 4:-0.26274899 5:1.763111 6:-0.94193047 #
-500 1:-1.706625 2:-1.197647 3:-0.49819601 4:0.2688123 5:-0.5266434 6:1.6032161 #
500 1:0.53450519 2:-0.96496743 3:-0.2169541 4:-0.84226269 5:-0.5266434 6:-1.111607 #
-500 1:-0.81705451 2:-1.334947 3:0.25072771 4:0.60498279 5:-0.5266434 6:1.659775 #
500 1:-1.304292 2:-0.55050248 3:-0.078027859 4:0.46125609 5:-0.5266434 6:1.40526 #
-500 1:-1.246613 2:-1.889815 3:-0.21912301 4:-0.36088479 5:-0.5266434 6:-0.40462181 #
500 1:1.566896 2:1.159091 3:-0.0793752 4:0.55742228 5:-0.5266434 6:0.896231 #
-500 1:0.87786132 2:0.050185021 3:-0.1266354 4:-0.60059381 5:-0.5266434 6:-1.055048 #
-500 1:1.307155 2:1.229049 3:0.205782 4:0.1727719 5:0.045795079 6:-1.196445 #
-274.10270616890329620218835771084 1:-0.38680199 2:1.137655 3:0.1554046 4:1.0908999 5:-0.5266434 6:0.86795157 #
-500 1:-1.4485151 2:-0.065243207 3:-0.079459712 4:0.027336979 5:-0.5266434 6:-0.2349453 #
-500 1:-0.55814368 2:0.39746329 3:-0.07728143 4:0.65515637 5:-0.5266434 6:0.5003193 #
500 1:0.99121559 2:0.35062239 3:-0.59574431 4:-0.4089098 5:0.045795079 6:-0.77225411 #
500 1:0.15904351 2:-0.1117999 3:-0.64330018 4:-0.89254278 5:-0.5266434 6:0.07612817 #
500 1:-1.1620539 2:0.76629847 3:-0.87402391 4:0.17207509 5:1.190672 6:1.546657 #
